<?xml version="1.0"?>
<opencv_storage>
<stage14>
  <maxWeakCount>57</maxWeakCount>
  <stageThreshold>-1.5953403711318970e+00</stageThreshold>
  <weakClassifiers>
    <_>
      <internalNodes>
        0 -1 201574 -1.4411929249763489e-01</internalNodes>
      <leafValues>
        -3.5897436738014221e-01 -7.2353869676589966e-01</leafValues></_>
    <_>
      <internalNodes>
        0 -1 66621 -4.7314158291555941e-04</internalNodes>
      <leafValues>
        1.5308198053389788e-03 -3.1286934018135071e-01</leafValues></_>
    <_>
      <internalNodes>
        0 -1 116790 -7.4343159794807434e-03</internalNodes>
      <leafValues>
        2.5989815592765808e-01 -9.0715058147907257e-02</leafValues></_>
    <_>
      <internalNodes>
        0 -1 158107 2.2079735994338989e-02</internalNodes>
      <leafValues>
        -8.4089353680610657e-02 2.7025189995765686e-01</leafValues></_>
    <_>
      <internalNodes>
        0 -1 162187 2.1596255828626454e-04</internalNodes>
      <leafValues>
        -1.1369584500789642e-01 1.9228447973728180e-01</leafValues></_>
    <_>
      <internalNodes>
        0 -1 50186 2.8886501240776852e-05</internalNodes>
      <leafValues>
        -1.4410865306854248e-01 1.5323391556739807e-01</leafValues></_>
    <_>
      <internalNodes>
        0 -1 223919 1.7927368753589690e-04</internalNodes>
      <leafValues>
        9.9505789577960968e-02 -4.0910288691520691e-01</leafValues></_>
    <_>
      <internalNodes>
        0 -1 61925 -4.3031079694628716e-03</internalNodes>
      <leafValues>
        1.4234030246734619e-01 -1.6194356977939606e-01</leafValues></_>
    <_>
      <internalNodes>
        0 -1 92185 -5.9712370857596397e-03</internalNodes>
      <leafValues>
        2.7744871377944946e-01 -8.8341772556304932e-02</leafValues></_>
    <_>
      <internalNodes>
        0 -1 162865 -3.3745404798537493e-03</internalNodes>
      <leafValues>
        1.9726921617984772e-01 -1.2297352403402328e-01</leafValues></_>
    <_>
      <internalNodes>
        0 -1 13148 -7.6035642996430397e-04</internalNodes>
      <leafValues>
        1.7230570316314697e-01 -1.3390049338340759e-01</leafValues></_>
    <_>
      <internalNodes>
        0 -1 204168 1.2882327428087592e-04</internalNodes>
      <leafValues>
        7.4609316885471344e-02 -2.9410493373870850e-01</leafValues></_>
    <_>
      <internalNodes>
        0 -1 255548 -9.3714222311973572e-03</internalNodes>
      <leafValues>
        2.8499132394790649e-01 -8.3258964121341705e-02</leafValues></_>
    <_>
      <internalNodes>
        0 -1 161988 -7.4282696004956961e-04</internalNodes>
      <leafValues>
        1.6612279415130615e-01 -1.3088923692703247e-01</leafValues></_>
    <_>
      <internalNodes>
        0 -1 33770 -3.2032810850068927e-05</internalNodes>
      <leafValues>
        1.4293090999126434e-01 -1.5101988613605499e-01</leafValues></_>
    <_>
      <internalNodes>
        0 -1 17488 4.2090978240594268e-04</internalNodes>
      <leafValues>
        5.5640112608671188e-02 -4.3896260857582092e-01</leafValues></_>
    <_>
      <internalNodes>
        0 -1 258862 2.6356091257184744e-04</internalNodes>
      <leafValues>
        -1.3079406321048737e-01 1.6805526614189148e-01</leafValues></_>
    <_>
      <internalNodes>
        0 -1 260950 -6.7219780758023262e-03</internalNodes>
      <leafValues>
        2.2938920557498932e-01 -9.6793122589588165e-02</leafValues></_>
    <_>
      <internalNodes>
        0 -1 21701 4.5723887160420418e-03</internalNodes>
      <leafValues>
        -1.5889765322208405e-01 1.3659282028675079e-01</leafValues></_>
    <_>
      <internalNodes>
        0 -1 60289 3.0227139592170715e-01</internalNodes>
      <leafValues>
        -5.5103361606597900e-02 3.9943972229957581e-01</leafValues></_>
    <_>
      <internalNodes>
        0 -1 22839 -1.0570910759270191e-02</internalNodes>
      <leafValues>
        3.5298475623130798e-01 -6.4952977001667023e-02</leafValues></_>
    <_>
      <internalNodes>
        0 -1 9633 -1.3771127164363861e-01</internalNodes>
      <leafValues>
        1.5770466625690460e-01 -1.3653163611888885e-01</leafValues></_>
    <_>
      <internalNodes>
        0 -1 48093 2.1694955229759216e-01</internalNodes>
      <leafValues>
        -6.4673848450183868e-02 3.6942991614341736e-01</leafValues></_>
    <_>
      <internalNodes>
        0 -1 257579 5.7902769185602665e-04</internalNodes>
      <leafValues>
        -9.7104251384735107e-02 2.0147156715393066e-01</leafValues></_>
    <_>
      <internalNodes>
        0 -1 214518 1.0243823635391891e-04</internalNodes>
      <leafValues>
        6.5997250378131866e-02 -3.1977951526641846e-01</leafValues></_>
    <_>
      <internalNodes>
        0 -1 181002 -3.5792466951534152e-04</internalNodes>
      <leafValues>
        1.4740638434886932e-01 -1.4979360997676849e-01</leafValues></_>
    <_>
      <internalNodes>
        0 -1 142288 1.2113025411963463e-02</internalNodes>
      <leafValues>
        -5.4211497306823730e-02 5.6261712312698364e-01</leafValues></_>
    <_>
      <internalNodes>
        0 -1 13869 -8.1912223249673843e-03</internalNodes>
      <leafValues>
        -6.0772305727005005e-01 3.7863604724407196e-02</leafValues></_>
    <_>
      <internalNodes>
        0 -1 248752 2.1817937493324280e-02</internalNodes>
      <leafValues>
        -4.3519567698240280e-02 5.3560072183609009e-01</leafValues></_>
    <_>
      <internalNodes>
        0 -1 247359 -1.1719515547156334e-02</internalNodes>
      <leafValues>
        -5.6912767887115479e-01 3.7158817052841187e-02</leafValues></_>
    <_>
      <internalNodes>
        0 -1 44865 -3.8768891245126724e-03</internalNodes>
      <leafValues>
        2.5181958079338074e-01 -8.2014508545398712e-02</leafValues></_>
    <_>
      <internalNodes>
        0 -1 106406 -2.1422754973173141e-02</internalNodes>
      <leafValues>
        -5.2704983949661255e-01 3.7218671292066574e-02</leafValues></_>
    <_>
      <internalNodes>
        0 -1 44860 1.0403669439256191e-03</internalNodes>
      <leafValues>
        -9.8787635564804077e-02 1.9993035495281219e-01</leafValues></_>
    <_>
      <internalNodes>
        0 -1 12780 -1.2625008821487427e-01</internalNodes>
      <leafValues>
        -5.2925944328308105e-01 3.6701269447803497e-02</leafValues></_>
    <_>
      <internalNodes>
        0 -1 163015 -1.0181830293731764e-04</internalNodes>
      <leafValues>
        1.4461553096771240e-01 -1.3045729696750641e-01</leafValues></_>
    <_>
      <internalNodes>
        0 -1 39998 6.7757718265056610e-02</internalNodes>
      <leafValues>
        -9.0165406465530396e-02 2.8032267093658447e-01</leafValues></_>
    <_>
      <internalNodes>
        0 -1 141610 8.4196319221518934e-05</internalNodes>
      <leafValues>
        9.1528482735157013e-02 -2.2702763974666595e-01</leafValues></_>
    <_>
      <internalNodes>
        0 -1 153319 -3.9503024891018867e-03</internalNodes>
      <leafValues>
        2.3536227643489838e-01 -8.5903845727443695e-02</leafValues></_>
    <_>
      <internalNodes>
        0 -1 187198 4.3453695252537727e-03</internalNodes>
      <leafValues>
        2.7146173641085625e-02 -7.4124604463577271e-01</leafValues></_>
    <_>
      <internalNodes>
        0 -1 79114 -5.6514535099267960e-03</internalNodes>
      <leafValues>
        2.0482717454433441e-01 -9.7888976335525513e-02</leafValues></_>
    <_>
      <internalNodes>
        0 -1 193696 6.5064690716098994e-05</internalNodes>
      <leafValues>
        7.7866032719612122e-02 -2.6595714688301086e-01</leafValues></_>
    <_>
      <internalNodes>
        0 -1 260267 1.4637893997132778e-02</internalNodes>
      <leafValues>
        3.4635636955499649e-02 -5.5390405654907227e-01</leafValues></_>
    <_>
      <internalNodes>
        0 -1 16785 -1.6617986839264631e-03</internalNodes>
      <leafValues>
        -4.8286399245262146e-01 3.5573888570070267e-02</leafValues></_>
    <_>
      <internalNodes>
        0 -1 260587 -1.6083998605608940e-02</internalNodes>
      <leafValues>
        -3.7467196583747864e-01 4.8726171255111694e-02</leafValues></_>
    <_>
      <internalNodes>
        0 -1 223058 -4.5540250837802887e-02</internalNodes>
      <leafValues>
        6.3850688934326172e-01 -3.5015288740396500e-02</leafValues></_>
    <_>
      <internalNodes>
        0 -1 82804 -4.0464615449309349e-04</internalNodes>
      <leafValues>
        1.5527568757534027e-01 -1.2871338427066803e-01</leafValues></_>
    <_>
      <internalNodes>
        0 -1 17326 3.3900185371749103e-05</internalNodes>
      <leafValues>
        -9.9425159394741058e-02 2.4533915519714355e-01</leafValues></_>
    <_>
      <internalNodes>
        0 -1 110098 -1.4285242650657892e-03</internalNodes>
      <leafValues>
        -1.5636998414993286e-01 1.3414102792739868e-01</leafValues></_>
    <_>
      <internalNodes>
        0 -1 255510 -7.7071323175914586e-05</internalNodes>
      <leafValues>
        1.6302917897701263e-01 -1.4373880624771118e-01</leafValues></_>
    <_>
      <internalNodes>
        0 -1 112325 -5.1212251186370850e-02</internalNodes>
      <leafValues>
        -9.7441697120666504e-01 1.8240379169583321e-02</leafValues></_>
    <_>
      <internalNodes>
        0 -1 231272 9.8251048475503922e-03</internalNodes>
      <leafValues>
        -1.2934283912181854e-01 1.5988509356975555e-01</leafValues></_>
    <_>
      <internalNodes>
        0 -1 42848 -3.7077285815030336e-03</internalNodes>
      <leafValues>
        2.1076796948909760e-01 -9.7894176840782166e-02</leafValues></_>
    <_>
      <internalNodes>
        0 -1 223073 6.8327537737786770e-03</internalNodes>
      <leafValues>
        -4.5877236872911453e-02 4.3445631861686707e-01</leafValues></_>
    <_>
      <internalNodes>
        0 -1 239142 2.6860134676098824e-03</internalNodes>
      <leafValues>
        5.6570306420326233e-02 -3.7138846516609192e-01</leafValues></_>
    <_>
      <internalNodes>
        0 -1 99479 3.3493048977106810e-04</internalNodes>
      <leafValues>
        -8.8050991296768188e-02 2.1394200623035431e-01</leafValues></_>
    <_>
      <internalNodes>
        0 -1 98204 -9.5884350594133139e-04</internalNodes>
      <leafValues>
        2.5885823369026184e-01 -8.6339130997657776e-02</leafValues></_>
    <_>
      <internalNodes>
        0 -1 33180 -6.5847620135173202e-05</internalNodes>
      <leafValues>
        1.2965704500675201e-01 -1.5484207868576050e-01</leafValues></_></weakClassifiers></stage14>
</opencv_storage>
